[[{"weights": [-0.07266723577300722, -0.01778525045050439, -0.02359841692726345, -0.06393798077320534, -0.03928253532692798, 0.013468615649754842, -0.08380116088341924, -0.07155412840590455, 0.036779417334133355, -0.012544090209205022, 0.05043798069874195, 0.06964445783105867, -0.03967982696776608, -0.008422604858756299, -0.043991757168314174, -0.0350627150338352], "bias": 0.0}, {"weights": [0.005745184756002843, -0.038904199079929695, 0.029150478669567152, 0.07693612239516825, -0.06160857656113612, -0.06336501329164913, 0.01329191338166842, -0.07086471225499322, 0.018534977470738727, -0.005347447954028366, 0.08443252601463151, 0.018276513926716264, -0.05868392499268602, 0.012118847366333028, -0.06264373344793685, -0.05500722228391504], "bias": -0.02776497106570616}, {"weights": [0.08564295688482643, 0.019339973785160874, 0.0765941476604561, 0.4755585565405809, -0.06386478421873315, 0.09038067075406699, 0.09236048210580976, 0.19874399202910376, -0.014767640477130993, 0.04816387803971405, 0.1011356524610461, 0.04184827550550986, -0.8501387770967751, 0.06430076847282583, -0.046179132556990014, -0.04239811344006942], "bias": 0.23133064375446205}, {"weights": [0.030889791102163715, -0.0516693509189557, -0.056172576938881724, 0.10944193332759375, -0.004443594374395647, -0.0007512320107246843, -0.042837953812431294, 0.05505145170365838, 0.08490046788287661, -0.015261001497300012, 0.07485607554857027, 0.06737856585951539, -0.24063458427213683, 0.05706834127129787, 0.005697037979784598, -0.02630185122825334], "bias": 0.10803772253192037}, {"weights": [0.012324595787998044, -0.042362516076833195, 0.02266139320571154, -0.0019239988839418838, -0.0076443508512626475, -0.08120495150749367, -0.048696917148970315, -0.07232197394477315, -0.0857877202997676, 0.005276291433540856, -0.06590828101144684, -0.009065290565124983, 0.06320690268966518, 0.0504593308991223, 0.052062979414553186, 0.07123379557702786], "bias": -0.037227886945970234}, {"weights": [-0.009863008177912943, -0.03305606012359479, -0.018062329059799848, 0.2196012517826774, -0.07325564060470563, 0.08234593640049434, 0.008035259371564787, 0.0905012541295856, 0.01113137761002723, 0.056661858584758765, 0.06845223917820617, 0.05022266442438888, -0.35610400881840937, 0.009258732632684707, -0.03276279404197245, -0.0054560956577165455], "bias": 0.10376264874871297}, {"weights": [0.04740899220686002, 0.03257981557125267, 0.19783184029818596, 0.7973803726639553, 0.0352797185071358, 0.3665088230426064, -0.0227159924406056, 0.043138068583827384, 0.06882843049061647, 0.029394998850832396, 0.03839041056458925, -0.09362373567417669, -0.6183265343698517, 0.1014437532555484, -0.035333894734649735, 0.16915876191166163], "bias": 0.037007550379503096}, {"weights": [-0.07477934581300613, 0.004552065451728511, 0.029472528785713593, -0.03405266152158487, 0.014107448620285474, -0.046523387360040205, -0.022786804588152017, 0.010698140004382148, 0.0583013913827859, 0.04586921372067199, -0.06307932334724077, -0.006132860416526322, -0.03323727321714617, 0.05846036293052166, 0.007312532640886727, 0.054979410726403805], "bias": -0.12510063091281548}, {"weights": [0.10193190734184764, 0.1721559690538348, -0.14403836509472848, -0.6831431006962747, 0.11250045841795049, -0.26121500700540223, -0.011495526586535017, 0.10710321180094054, 0.02717420824154038, 0.13321325205218687, 0.06263495613053388, 0.13257159285716372, 1.2688069600605159, 0.04238726830464345, 0.062019386130683266, 0.11660921292691488], "bias": 0.5139841466538506}, {"weights": [-0.011782351611475374, 0.16263026724758656, -0.16871144568963914, -1.0176580729173677, 0.012987162267303894, -0.4491726885825573, 0.16610459715380116, 0.15823563682798025, 0.012715357375467914, 0.015390661554003433, 0.08741783788573007, 0.1942889296112198, 0.6567772699837787, -0.06101678786918023, 0.014109048150945559, -0.05079241391196883], "bias": 0.7242122019801097}, {"weights": [-0.02250331183490779, -0.08354952045913704, -0.08376978189171898, 0.05654028598291519, 0.024588141964636667, -0.06693457140609645, -0.024062472872893658, -0.02657324126524949, -0.0381732269250077, 0.04224205457402599, 0.08100818508295013, -0.06768534358460032, -0.020184236817403296, 0.020595928603918207, 0.06958849375026167, -0.04645849153766097], "bias": -0.0017897126134237538}, {"weights": [0.026231529020520557, 0.06854993330598536, -0.08630962691402574, -0.07509828731004953, 0.04582696468670814, 0.014741624125086512, -0.004712802302715966, -0.00027678598259380687, -0.024722259451902977, 0.07746023297390844, -0.09071742709242697, -0.08863113303279259, -0.02600395015363973, 0.06801639832083083, 0.08617389642644667, -0.0749700608554938], "bias": -0.029709794340195588}, {"weights": [0.060787088687437235, 0.06762898541496004, -0.05861318379597569, 0.06523802867164143, -0.08366058588745198, -0.06746911228971647, 0.05345425547916125, 0.020288116717396623, -0.024367119839272294, -0.028223146827633893, -0.021360077457366098, -0.08268773538170167, -0.028108806746492195, -0.06657052167434592, 0.06096332209146462, -0.027384865774203394], "bias": -0.048084216092597054}, {"weights": [-0.07115037319034932, 0.07853249454456036, -0.040326400422961955, -0.07916561566970529, -0.06894202066379938, -0.001363537931356068, 0.028264856678205847, -0.04028138825339839, 0.004234395540844553, -0.042949958782670855, 0.054492538108790047, 0.051767074303434954, -0.028033528365159086, -0.047335551748818795, -0.06028615700300953, -0.016339379580104334], "bias": 0.04959985146605904}, {"weights": [0.054573921083677306, 0.10931717419672364, -0.2017765231327826, -0.2942301637746807, -0.13440455499581366, -0.2109447187180735, 0.12463056848506014, 0.18194683973780673, 0.0398637939269632, 0.10023298654655889, -0.022817168469640627, 0.055008960021769006, -0.1860205028502467, 0.007665300674670313, -0.07640256375860516, -0.13938576269770475], "bias": 0.42596150636400776}, {"weights": [0.0326318732099657, 0.08125117665657816, -0.03752996470387782, -0.043195470032840654, 0.024802312411937658, 0.055881095808484015, -0.021185078821003425, -0.07794914001228795, -0.05044088835304486, -0.0008048247818525843, -0.009737083510529536, -0.021066587088709104, 0.12921927759351215, -0.008248572920159911, -0.05197806951307351, 0.0016440939761315602], "bias": 0.049837246722284005}], [{"weights": [-0.03420991525084213, -0.05933745993733553, -0.2129218581383956, -0.001008952831142792, 0.07764184810899341, -0.10726121968226622, -0.14697708139415752, 0.04740132295499921, 0.48193173759000696, 0.1548844731323225, 0.07936447868629277, -0.029970658416069388, 0.0346998944739171, -0.0036692275228407375, -0.10341431929453264, 0.03293930895393581], "bias": 0.22009973402923697}, {"weights": [-0.030740315825618234, -0.06621857501900041, 0.5858975149444662, 0.17618825690809375, -0.06353996875030703, 0.23531414568885733, 0.3074109051660091, -0.04911411392307209, -0.4098878448984014, -0.0736035149056628, 0.03403096459098158, -0.01487074346366932, 0.03175894179210015, 0.09530076434403235, 0.3007436821964519, -0.05712954316746756], "bias": 0.7100081943850873}, {"weights": [-0.07640735003388034, -0.05114867907889956, 0.1051193841708829, 0.025017990693627812, 0.010272844264879956, 0.026370392916716317, 0.4149933126878098, 0.03304589952471474, 0.03307209802973439, -0.27845271631471, 0.08514451191228042, -0.08160168266555456, 0.061519744810465085, -0.06494789923614172, -0.20495272564970712, 0.08346703409815485], "bias": 0.038886328198395145}, {"weights": [-0.0034071407379790276, -0.04550768306209609, -0.48456342076133596, -0.08070091815114673, -0.05874831575193406, -0.22995686309511934, -0.7060154445255457, -0.06404444781995453, 0.885726595413422, 1.0376712795328948, 5.746608900441651e-05, -0.02837359733825774, 0.025201323045894557, -0.07101752743284545, 0.33248764872377956, 0.09599888306537596], "bias": 1.02071430564977}, {"weights": [-0.05671314023326119, -0.01499024828144004, -0.010340728472611263, 0.03693198444936452, -0.04442249935332948, 0.06988815099949393, -0.01323515995981189, -0.01752187545321454, -0.009936989622641466, 0.012227036613670087, 0.005976066782826003, 0.008745353128631218, -0.011898541659411668, 0.039868191659612195, -0.048263681832219026, 0.023536879912926408], "bias": -0.06403818001580132}, {"weights": [-0.018357325007182172, -0.018658102917254712, 0.14449209972989585, 0.09290283722451571, -0.07787132713745801, 0.030790915549091583, 0.27899625037175213, -0.07339038660956503, -0.0411346561300444, -0.2986096410527024, -0.03291586709969975, 0.013106634672731161, 0.07695235985910671, 0.005003317452766258, -0.03484495362149213, -0.07290697693072902], "bias": -0.08484495904502637}, {"weights": [0.012227055750970658, -0.05430819669612545, -0.05119540109833206, 0.06550196032748307, -0.031771751581147326, 0.03252245544868949, -0.07785996512680006, -0.0072062925456591615, -0.06223382394645162, -0.016435258748492564, -0.048678557205281754, -0.003653003197242736, -0.01876017001320933, 0.000948266246207449, -0.06266721433787528, -0.04041314004552652], "bias": 0.0}, {"weights": [-0.026006302424179683, 0.018745703531598015, -0.4586323861796665, -0.1790888822014913, -0.0480212441878519, -0.19945727416250605, -0.11321092641724019, -0.01654518491937032, 0.7451934181120632, 0.20535393043084924, -0.013764969420439924, 0.0667980734149911, -0.0015837832232180552, -0.054767619660170956, -0.294280531766283, 0.054151790371449245], "bias": -0.05287435588480346}], [{"weights": [0.5218319602027095, -0.941825194430963, 0.06862105299643868, 0.9005356571307392, 0.046440323952625075, -0.09886749286633419, 0.013040188256355296, 0.8925240678144011], "bias": -0.4659393585342853}, {"weights": [0.17305947130963562, -0.33086820043344056, 0.037888938412981965, 0.3535229699599595, 0.006144892196246796, 0.1067911851401119, 0.0451827034788101, 0.2464131922400171], "bias": -0.24429449338341075}, {"weights": [0.20090422362717678, -0.2144375694789652, -0.5128788994413269, 1.3577609608457317, 0.1216519474176619, -0.40475071463464773, 0.0939407814448143, -0.31090271615543946], "bias": 0.8042399477608831}, {"weights": [0.05221370101224279, -0.10276806547614374, 0.020220024158121963, -0.04550886148109163, 0.02209288426888924, 0.007584331554978114, -0.05112476499831451, 0.04779244151570385], "bias": -0.07212871867364244}], [{"weights": [-1.1462859008117705, -0.42991119496852315, 1.5127791292355843, -0.05166281062783416], "bias": -0.004117778109673768}, {"weights": [1.2343697802486429, 0.3760830380511803, 0.29634360186478576, -0.13636562714888378], "bias": -0.7502953861168783}], [{"weights": [-1.8743364377404914, 1.3674516313389047], "bias": 0.9580112438445579}]]